#pragma once
#include <cstdarg>
namespace Eloquent {
    namespace ML {
        namespace Port {
            class RandomForest {
                public:
                    /**
                    * Predict class for features vector
                    */
                    int predict(float *x) {
                        uint8_t votes[3] = { 0 };
                        // tree #1
                        if (x[0] <= 484.51220703125) {
                            if (x[1] <= 18.20659065246582) {
                                votes[0] += 1;
                            }

                            else {
                                votes[2] += 1;
                            }
                        }

                        else {
                            if (x[3] <= 495.0) {
                                if (x[2] <= 9.84710693359375) {
                                    if (x[5] <= 530.0) {
                                        votes[2] += 1;
                                    }

                                    else {
                                        if (x[2] <= 9.840338706970215) {
                                            votes[2] += 1;
                                        }

                                        else {
                                            votes[1] += 1;
                                        }
                                    }
                                }

                                else {
                                    votes[2] += 1;
                                }
                            }

                            else {
                                if (x[0] <= 502.6978454589844) {
                                    votes[1] += 1;
                                }

                                else {
                                    if (x[5] <= 1265.0) {
                                        if (x[1] <= 147.9870376586914) {
                                            if (x[0] <= 826.9407653808594) {
                                                if (x[5] <= 895.0) {
                                                    if (x[4] <= 380.0) {
                                                        if (x[5] <= 740.0) {
                                                            votes[0] += 1;
                                                        }

                                                        else {
                                                            votes[1] += 1;
                                                        }
                                                    }

                                                    else {
                                                        if (x[2] <= 28.20342254638672) {
                                                            if (x[1] <= 38.373626708984375) {
                                                                if (x[2] <= 23.015271186828613) {
                                                                    if (x[1] <= 17.804587364196777) {
                                                                        if (x[4] <= 525.0) {
                                                                            if (x[5] <= 605.0) {
                                                                                votes[0] += 1;
                                                                            }

                                                                            else {
                                                                                votes[2] += 1;
                                                                            }
                                                                        }

                                                                        else {
                                                                            if (x[5] <= 645.0) {
                                                                                if (x[4] <= 535.0) {
                                                                                    votes[2] += 1;
                                                                                }

                                                                                else {
                                                                                    votes[2] += 1;
                                                                                }
                                                                            }

                                                                            else {
                                                                                votes[1] += 1;
                                                                            }
                                                                        }
                                                                    }

                                                                    else {
                                                                        if (x[0] <= 676.6199951171875) {
                                                                            if (x[1] <= 33.17749786376953) {
                                                                                if (x[4] <= 495.0) {
                                                                                    votes[0] += 1;
                                                                                }

                                                                                else {
                                                                                    votes[1] += 1;
                                                                                }
                                                                            }

                                                                            else {
                                                                                if (x[5] <= 705.0) {
                                                                                    votes[2] += 1;
                                                                                }

                                                                                else {
                                                                                    votes[2] += 1;
                                                                                }
                                                                            }
                                                                        }

                                                                        else {
                                                                            if (x[0] <= 688.173095703125) {
                                                                                votes[0] += 1;
                                                                            }

                                                                            else {
                                                                                if (x[0] <= 718.55419921875) {
                                                                                    votes[2] += 1;
                                                                                }

                                                                                else {
                                                                                    votes[1] += 1;
                                                                                }
                                                                            }
                                                                        }
                                                                    }
                                                                }

                                                                else {
                                                                    if (x[3] <= 715.0) {
                                                                        if (x[1] <= 34.937875747680664) {
                                                                            if (x[1] <= 33.02209281921387) {
                                                                                if (x[1] <= 29.189480781555176) {
                                                                                    votes[2] += 1;
                                                                                }

                                                                                else {
                                                                                    votes[2] += 1;
                                                                                }
                                                                            }

                                                                            else {
                                                                                if (x[2] <= 23.310178756713867) {
                                                                                    votes[0] += 1;
                                                                                }

                                                                                else {
                                                                                    votes[2] += 1;
                                                                                }
                                                                            }
                                                                        }

                                                                        else {
                                                                            if (x[1] <= 35.079952239990234) {
                                                                                votes[1] += 1;
                                                                            }

                                                                            else {
                                                                                if (x[4] <= 495.0) {
                                                                                    votes[2] += 1;
                                                                                }

                                                                                else {
                                                                                    votes[0] += 1;
                                                                                }
                                                                            }
                                                                        }
                                                                    }

                                                                    else {
                                                                        if (x[3] <= 725.0) {
                                                                            if (x[5] <= 820.0) {
                                                                                if (x[2] <= 25.056638717651367) {
                                                                                    votes[0] += 1;
                                                                                }

                                                                                else {
                                                                                    votes[1] += 1;
                                                                                }
                                                                            }

                                                                            else {
                                                                                if (x[1] <= 33.327117919921875) {
                                                                                    votes[1] += 1;
                                                                                }

                                                                                else {
                                                                                    votes[2] += 1;
                                                                                }
                                                                            }
                                                                        }

                                                                        else {
                                                                            if (x[1] <= 32.869224548339844) {
                                                                                votes[2] += 1;
                                                                            }

                                                                            else {
                                                                                if (x[4] <= 635.0) {
                                                                                    votes[2] += 1;
                                                                                }

                                                                                else {
                                                                                    votes[0] += 1;
                                                                                }
                                                                            }
                                                                        }
                                                                    }
                                                                }
                                                            }

                                                            else {
                                                                if (x[3] <= 535.0) {
                                                                    if (x[3] <= 525.0) {
                                                                        votes[2] += 1;
                                                                    }

                                                                    else {
                                                                        if (x[0] <= 537.5223999023438) {
                                                                            votes[2] += 1;
                                                                        }

                                                                        else {
                                                                            votes[1] += 1;
                                                                        }
                                                                    }
                                                                }

                                                                else {
                                                                    if (x[4] <= 605.0) {
                                                                        if (x[3] <= 685.0) {
                                                                            if (x[2] <= 25.153249740600586) {
                                                                                if (x[4] <= 495.0) {
                                                                                    votes[0] += 1;
                                                                                }

                                                                                else {
                                                                                    votes[2] += 1;
                                                                                }
                                                                            }

                                                                            else {
                                                                                if (x[0] <= 666.2024841308594) {
                                                                                    votes[1] += 1;
                                                                                }

                                                                                else {
                                                                                    votes[0] += 1;
                                                                                }
                                                                            }
                                                                        }

                                                                        else {
                                                                            if (x[0] <= 712.1871948242188) {
                                                                                if (x[5] <= 815.0) {
                                                                                    votes[1] += 1;
                                                                                }

                                                                                else {
                                                                                    votes[2] += 1;
                                                                                }
                                                                            }

                                                                            else {
                                                                                if (x[5] <= 845.0) {
                                                                                    votes[0] += 1;
                                                                                }

                                                                                else {
                                                                                    votes[1] += 1;
                                                                                }
                                                                            }
                                                                        }
                                                                    }

                                                                    else {
                                                                        if (x[0] <= 688.9615173339844) {
                                                                            votes[1] += 1;
                                                                        }

                                                                        else {
                                                                            if (x[1] <= 39.164817810058594) {
                                                                                if (x[0] <= 708.0028076171875) {
                                                                                    votes[2] += 1;
                                                                                }

                                                                                else {
                                                                                    votes[1] += 1;
                                                                                }
                                                                            }

                                                                            else {
                                                                                if (x[3] <= 705.0) {
                                                                                    votes[0] += 1;
                                                                                }

                                                                                else {
                                                                                    votes[0] += 1;
                                                                                }
                                                                            }
                                                                        }
                                                                    }
                                                                }
                                                            }
                                                        }

                                                        else {
                                                            if (x[5] <= 815.0) {
                                                                if (x[1] <= 55.28283500671387) {
                                                                    if (x[2] <= 28.995354652404785) {
                                                                        if (x[0] <= 588.4778442382812) {
                                                                            votes[2] += 1;
                                                                        }

                                                                        else {
                                                                            if (x[4] <= 570.0) {
                                                                                if (x[1] <= 36.25557518005371) {
                                                                                    votes[2] += 1;
                                                                                }

                                                                                else {
                                                                                    votes[1] += 1;
                                                                                }
                                                                            }

                                                                            else {
                                                                                if (x[4] <= 600.0) {
                                                                                    votes[0] += 1;
                                                                                }

                                                                                else {
                                                                                    votes[2] += 1;
                                                                                }
                                                                            }
                                                                        }
                                                                    }

                                                                    else {
                                                                        if (x[0] <= 666.3144226074219) {
                                                                            if (x[0] <= 661.9259033203125) {
                                                                                votes[2] += 1;
                                                                            }

                                                                            else {
                                                                                votes[0] += 1;
                                                                            }
                                                                        }

                                                                        else {
                                                                            votes[2] += 1;
                                                                        }
                                                                    }
                                                                }

                                                                else {
                                                                    if (x[5] <= 805.0) {
                                                                        if (x[2] <= 31.087116241455078) {
                                                                            votes[1] += 1;
                                                                        }

                                                                        else {
                                                                            if (x[1] <= 59.20438575744629) {
                                                                                votes[2] += 1;
                                                                            }

                                                                            else {
                                                                                votes[1] += 1;
                                                                            }
                                                                        }
                                                                    }

                                                                    else {
                                                                        votes[2] += 1;
                                                                    }
                                                                }
                                                            }

                                                            else {
                                                                if (x[4] <= 555.0) {
                                                                    if (x[1] <= 72.93669509887695) {
                                                                        if (x[2] <= 30.059619903564453) {
                                                                            if (x[0] <= 658.1128234863281) {
                                                                                votes[1] += 1;
                                                                            }

                                                                            else {
                                                                                votes[0] += 1;
                                                                            }
                                                                        }

                                                                        else {
                                                                            if (x[2] <= 35.25773620605469) {
                                                                                if (x[3] <= 685.0) {
                                                                                    votes[2] += 1;
                                                                                }

                                                                                else {
                                                                                    votes[0] += 1;
                                                                                }
                                                                            }

                                                                            else {
                                                                                if (x[3] <= 697.5) {
                                                                                    votes[2] += 1;
                                                                                }

                                                                                else {
                                                                                    votes[2] += 1;
                                                                                }
                                                                            }
                                                                        }
                                                                    }

                                                                    else {
                                                                        if (x[2] <= 39.92660140991211) {
                                                                            votes[1] += 1;
                                                                        }

                                                                        else {
                                                                            votes[2] += 1;
                                                                        }
                                                                    }
                                                                }

                                                                else {
                                                                    if (x[1] <= 44.39594268798828) {
                                                                        if (x[3] <= 737.5) {
                                                                            if (x[4] <= 575.0) {
                                                                                if (x[3] <= 695.0) {
                                                                                    votes[0] += 1;
                                                                                }

                                                                                else {
                                                                                    votes[1] += 1;
                                                                                }
                                                                            }

                                                                            else {
                                                                                if (x[3] <= 675.0) {
                                                                                    votes[0] += 1;
                                                                                }

                                                                                else {
                                                                                    votes[2] += 1;
                                                                                }
                                                                            }
                                                                        }

                                                                        else {
                                                                            if (x[5] <= 865.0) {
                                                                                if (x[5] <= 845.0) {
                                                                                    votes[1] += 1;
                                                                                }

                                                                                else {
                                                                                    votes[1] += 1;
                                                                                }
                                                                            }

                                                                            else {
                                                                                if (x[4] <= 655.0) {
                                                                                    votes[2] += 1;
                                                                                }

                                                                                else {
                                                                                    votes[2] += 1;
                                                                                }
                                                                            }
                                                                        }
                                                                    }

                                                                    else {
                                                                        if (x[0] <= 772.8947448730469) {
                                                                            if (x[1] <= 55.50173568725586) {
                                                                                if (x[0] <= 759.6821899414062) {
                                                                                    votes[2] += 1;
                                                                                }

                                                                                else {
                                                                                    votes[1] += 1;
                                                                                }
                                                                            }

                                                                            else {
                                                                                if (x[0] <= 740.5186767578125) {
                                                                                    votes[1] += 1;
                                                                                }

                                                                                else {
                                                                                    votes[2] += 1;
                                                                                }
                                                                            }
                                                                        }

                                                                        else {
                                                                            if (x[4] <= 630.0) {
                                                                                votes[0] += 1;
                                                                            }

                                                                            else {
                                                                                if (x[5] <= 885.0) {
                                                                                    votes[1] += 1;
                                                                                }

                                                                                else {
                                                                                    votes[2] += 1;
                                                                                }
                                                                            }
                                                                        }
                                                                    }
                                                                }
                                                            }
                                                        }
                                                    }
                                                }

                                                else {
                                                    if (x[2] <= 42.60918617248535) {
                                                        if (x[0] <= 699.4536743164062) {
                                                            if (x[5] <= 910.0) {
                                                                votes[0] += 1;
                                                            }

                                                            else {
                                                                if (x[2] <= 39.36614990234375) {
                                                                    if (x[1] <= 91.57406234741211) {
                                                                        votes[2] += 1;
                                                                    }

                                                                    else {
                                                                        if (x[3] <= 675.0) {
                                                                            votes[2] += 1;
                                                                        }

                                                                        else {
                                                                            votes[0] += 1;
                                                                        }
                                                                    }
                                                                }

                                                                else {
                                                                    votes[0] += 1;
                                                                }
                                                            }
                                                        }

                                                        else {
                                                            if (x[5] <= 925.0) {
                                                                if (x[1] <= 45.31648826599121) {
                                                                    if (x[4] <= 650.0) {
                                                                        if (x[5] <= 910.0) {
                                                                            if (x[2] <= 28.52808380126953) {
                                                                                votes[0] += 1;
                                                                            }

                                                                            else {
                                                                                votes[1] += 1;
                                                                            }
                                                                        }

                                                                        else {
                                                                            votes[1] += 1;
                                                                        }
                                                                    }

                                                                    else {
                                                                        votes[0] += 1;
                                                                    }
                                                                }

                                                                else {
                                                                    if (x[2] <= 34.10756301879883) {
                                                                        if (x[4] <= 605.0) {
                                                                            if (x[0] <= 722.3616638183594) {
                                                                                if (x[3] <= 715.0) {
                                                                                    votes[0] += 1;
                                                                                }

                                                                                else {
                                                                                    votes[0] += 1;
                                                                                }
                                                                            }

                                                                            else {
                                                                                votes[2] += 1;
                                                                            }
                                                                        }

                                                                        else {
                                                                            votes[0] += 1;
                                                                        }
                                                                    }

                                                                    else {
                                                                        if (x[5] <= 915.0) {
                                                                            votes[2] += 1;
                                                                        }

                                                                        else {
                                                                            if (x[2] <= 41.80915641784668) {
                                                                                votes[2] += 1;
                                                                            }

                                                                            else {
                                                                                votes[1] += 1;
                                                                            }
                                                                        }
                                                                    }
                                                                }
                                                            }

                                                            else {
                                                                if (x[0] <= 746.7363891601562) {
                                                                    if (x[1] <= 62.70829200744629) {
                                                                        if (x[2] <= 37.619211196899414) {
                                                                            if (x[4] <= 630.0) {
                                                                                if (x[4] <= 575.0) {
                                                                                    votes[0] += 1;
                                                                                }

                                                                                else {
                                                                                    votes[1] += 1;
                                                                                }
                                                                            }

                                                                            else {
                                                                                votes[0] += 1;
                                                                            }
                                                                        }

                                                                        else {
                                                                            if (x[0] <= 732.5204772949219) {
                                                                                votes[2] += 1;
                                                                            }

                                                                            else {
                                                                                if (x[5] <= 975.0) {
                                                                                    votes[0] += 1;
                                                                                }

                                                                                else {
                                                                                    votes[2] += 1;
                                                                                }
                                                                            }
                                                                        }
                                                                    }

                                                                    else {
                                                                        votes[0] += 1;
                                                                    }
                                                                }

                                                                else {
                                                                    if (x[5] <= 975.0) {
                                                                        if (x[4] <= 615.0) {
                                                                            if (x[1] <= 69.78586196899414) {
                                                                                votes[1] += 1;
                                                                            }

                                                                            else {
                                                                                votes[0] += 1;
                                                                            }
                                                                        }

                                                                        else {
                                                                            if (x[5] <= 935.0) {
                                                                                votes[0] += 1;
                                                                            }

                                                                            else {
                                                                                if (x[4] <= 640.0) {
                                                                                    votes[0] += 1;
                                                                                }

                                                                                else {
                                                                                    votes[0] += 1;
                                                                                }
                                                                            }
                                                                        }
                                                                    }

                                                                    else {
                                                                        if (x[5] <= 995.0) {
                                                                            votes[2] += 1;
                                                                        }

                                                                        else {
                                                                            if (x[0] <= 747.2384948730469) {
                                                                                votes[0] += 1;
                                                                            }

                                                                            else {
                                                                                votes[1] += 1;
                                                                            }
                                                                        }
                                                                    }
                                                                }
                                                            }
                                                        }
                                                    }

                                                    else {
                                                        if (x[1] <= 60.279937744140625) {
                                                            if (x[2] <= 65.27090072631836) {
                                                                if (x[5] <= 990.0) {
                                                                    if (x[5] <= 970.0) {
                                                                        if (x[5] <= 955.0) {
                                                                            if (x[0] <= 770.9614562988281) {
                                                                                if (x[3] <= 745.0) {
                                                                                    votes[2] += 1;
                                                                                }

                                                                                else {
                                                                                    votes[1] += 1;
                                                                                }
                                                                            }

                                                                            else {
                                                                                votes[2] += 1;
                                                                            }
                                                                        }

                                                                        else {
                                                                            votes[2] += 1;
                                                                        }
                                                                    }

                                                                    else {
                                                                        if (x[1] <= 49.00033378601074) {
                                                                            votes[0] += 1;
                                                                        }

                                                                        else {
                                                                            votes[1] += 1;
                                                                        }
                                                                    }
                                                                }

                                                                else {
                                                                    if (x[5] <= 1025.0) {
                                                                        votes[2] += 1;
                                                                    }

                                                                    else {
                                                                        if (x[0] <= 664.3421020507812) {
                                                                            if (x[5] <= 1045.0) {
                                                                                votes[0] += 1;
                                                                            }

                                                                            else {
                                                                                votes[2] += 1;
                                                                            }
                                                                        }

                                                                        else {
                                                                            votes[0] += 1;
                                                                        }
                                                                    }
                                                                }
                                                            }

                                                            else {
                                                                votes[0] += 1;
                                                            }
                                                        }

                                                        else {
                                                            if (x[4] <= 555.0) {
                                                                if (x[5] <= 1055.0) {
                                                                    if (x[5] <= 1035.0) {
                                                                        votes[0] += 1;
                                                                    }

                                                                    else {
                                                                        votes[2] += 1;
                                                                    }
                                                                }

                                                                else {
                                                                    votes[0] += 1;
                                                                }
                                                            }

                                                            else {
                                                                if (x[2] <= 45.332963943481445) {
                                                                    if (x[2] <= 43.183311462402344) {
                                                                        if (x[0] <= 748.7916564941406) {
                                                                            votes[2] += 1;
                                                                        }

                                                                        else {
                                                                            votes[0] += 1;
                                                                        }
                                                                    }

                                                                    else {
                                                                        votes[2] += 1;
                                                                    }
                                                                }

                                                                else {
                                                                    if (x[2] <= 49.9125862121582) {
                                                                        if (x[0] <= 779.018798828125) {
                                                                            if (x[5] <= 1060.0) {
                                                                                votes[1] += 1;
                                                                            }

                                                                            else {
                                                                                votes[0] += 1;
                                                                            }
                                                                        }

                                                                        else {
                                                                            if (x[5] <= 1015.0) {
                                                                                votes[2] += 1;
                                                                            }

                                                                            else {
                                                                                if (x[2] <= 45.65134620666504) {
                                                                                    votes[2] += 1;
                                                                                }

                                                                                else {
                                                                                    votes[1] += 1;
                                                                                }
                                                                            }
                                                                        }
                                                                    }

                                                                    else {
                                                                        if (x[3] <= 795.0) {
                                                                            if (x[5] <= 1140.0) {
                                                                                if (x[4] <= 620.0) {
                                                                                    votes[0] += 1;
                                                                                }

                                                                                else {
                                                                                    votes[2] += 1;
                                                                                }
                                                                            }

                                                                            else {
                                                                                if (x[5] <= 1220.0) {
                                                                                    votes[1] += 1;
                                                                                }

                                                                                else {
                                                                                    votes[0] += 1;
                                                                                }
                                                                            }
                                                                        }

                                                                        else {
                                                                            if (x[4] <= 565.0) {
                                                                                votes[1] += 1;
                                                                            }

                                                                            else {
                                                                                if (x[5] <= 1155.0) {
                                                                                    votes[2] += 1;
                                                                                }

                                                                                else {
                                                                                    votes[1] += 1;
                                                                                }
                                                                            }
                                                                        }
                                                                    }
                                                                }
                                                            }
                                                        }
                                                    }
                                                }
                                            }

                                            else {
                                                if (x[1] <= 130.6152801513672) {
                                                    if (x[0] <= 922.1134033203125) {
                                                        if (x[0] <= 917.7179260253906) {
                                                            votes[1] += 1;
                                                        }

                                                        else {
                                                            if (x[4] <= 655.0) {
                                                                if (x[5] <= 1170.0) {
                                                                    votes[1] += 1;
                                                                }

                                                                else {
                                                                    votes[2] += 1;
                                                                }
                                                            }

                                                            else {
                                                                votes[1] += 1;
                                                            }
                                                        }
                                                    }

                                                    else {
                                                        if (x[3] <= 932.5) {
                                                            if (x[0] <= 926.3730773925781) {
                                                                votes[1] += 1;
                                                            }

                                                            else {
                                                                if (x[0] <= 926.8134765625) {
                                                                    votes[2] += 1;
                                                                }

                                                                else {
                                                                    votes[1] += 1;
                                                                }
                                                            }
                                                        }

                                                        else {
                                                            votes[1] += 1;
                                                        }
                                                    }
                                                }

                                                else {
                                                    if (x[3] <= 942.5) {
                                                        if (x[3] <= 937.5) {
                                                            if (x[3] <= 892.5) {
                                                                votes[0] += 1;
                                                            }

                                                            else {
                                                                votes[2] += 1;
                                                            }
                                                        }

                                                        else {
                                                            votes[1] += 1;
                                                        }
                                                    }

                                                    else {
                                                        votes[2] += 1;
                                                    }
                                                }
                                            }
                                        }

                                        else {
                                            votes[0] += 1;
                                        }
                                    }

                                    else {
                                        if (x[2] <= 129.86042022705078) {
                                            if (x[2] <= 119.68971252441406) {
                                                votes[2] += 1;
                                            }

                                            else {
                                                votes[1] += 1;
                                            }
                                        }

                                        else {
                                            votes[2] += 1;
                                        }
                                    }
                                }
                            }
                        }

                        // tree #2
                        if (x[2] <= 9.497952938079834) {
                            if (x[4] <= 445.0) {
                                if (x[1] <= 14.651661396026611) {
                                    if (x[3] <= 485.0) {
                                        votes[0] += 1;
                                    }

                                    else {
                                        votes[2] += 1;
                                    }
                                }

                                else {
                                    votes[0] += 1;
                                }
                            }

                            else {
                                votes[0] += 1;
                            }
                        }

                        else {
                            if (x[1] <= 17.215283393859863) {
                                if (x[2] <= 11.193475723266602) {
                                    if (x[2] <= 9.669914722442627) {
                                        if (x[1] <= 15.56845235824585) {
                                            if (x[4] <= 530.0) {
                                                if (x[4] <= 480.0) {
                                                    if (x[1] <= 15.33478307723999) {
                                                        votes[2] += 1;
                                                    }

                                                    else {
                                                        votes[0] += 1;
                                                    }
                                                }

                                                else {
                                                    votes[0] += 1;
                                                }
                                            }

                                            else {
                                                votes[2] += 1;
                                            }
                                        }

                                        else {
                                            if (x[0] <= 529.8148498535156) {
                                                votes[1] += 1;
                                            }

                                            else {
                                                votes[2] += 1;
                                            }
                                        }
                                    }

                                    else {
                                        if (x[4] <= 435.0) {
                                            votes[0] += 1;
                                        }

                                        else {
                                            if (x[5] <= 615.0) {
                                                if (x[0] <= 483.47715759277344) {
                                                    votes[0] += 1;
                                                }

                                                else {
                                                    if (x[3] <= 495.0) {
                                                        votes[2] += 1;
                                                    }

                                                    else {
                                                        if (x[5] <= 570.0) {
                                                            votes[1] += 1;
                                                        }

                                                        else {
                                                            if (x[0] <= 560.5642700195312) {
                                                                if (x[1] <= 13.44666051864624) {
                                                                    votes[0] += 1;
                                                                }

                                                                else {
                                                                    votes[2] += 1;
                                                                }
                                                            }

                                                            else {
                                                                if (x[1] <= 10.881501197814941) {
                                                                    if (x[0] <= 566.6532287597656) {
                                                                        votes[2] += 1;
                                                                    }

                                                                    else {
                                                                        votes[0] += 1;
                                                                    }
                                                                }

                                                                else {
                                                                    votes[2] += 1;
                                                                }
                                                            }
                                                        }
                                                    }
                                                }
                                            }

                                            else {
                                                if (x[0] <= 566.1927490234375) {
                                                    votes[0] += 1;
                                                }

                                                else {
                                                    if (x[4] <= 535.0) {
                                                        votes[2] += 1;
                                                    }

                                                    else {
                                                        votes[0] += 1;
                                                    }
                                                }
                                            }
                                        }
                                    }
                                }

                                else {
                                    if (x[0] <= 537.1414642333984) {
                                        if (x[5] <= 535.0) {
                                            votes[2] += 1;
                                        }

                                        else {
                                            if (x[3] <= 495.0) {
                                                votes[2] += 1;
                                            }

                                            else {
                                                votes[1] += 1;
                                            }
                                        }
                                    }

                                    else {
                                        if (x[3] <= 585.0) {
                                            votes[2] += 1;
                                        }

                                        else {
                                            votes[1] += 1;
                                        }
                                    }
                                }
                            }

                            else {
                                if (x[3] <= 652.5) {
                                    if (x[2] <= 31.014631271362305) {
                                        if (x[1] <= 24.118322372436523) {
                                            if (x[3] <= 490.0) {
                                                if (x[2] <= 11.78139066696167) {
                                                    if (x[2] <= 11.26978588104248) {
                                                        votes[0] += 1;
                                                    }

                                                    else {
                                                        if (x[0] <= 477.21270751953125) {
                                                            votes[0] += 1;
                                                        }

                                                        else {
                                                            votes[2] += 1;
                                                        }
                                                    }
                                                }

                                                else {
                                                    votes[2] += 1;
                                                }
                                            }

                                            else {
                                                if (x[0] <= 613.5423583984375) {
                                                    if (x[4] <= 505.0) {
                                                        if (x[2] <= 12.580238342285156) {
                                                            votes[2] += 1;
                                                        }

                                                        else {
                                                            if (x[0] <= 572.6996765136719) {
                                                                if (x[2] <= 13.469085693359375) {
                                                                    if (x[4] <= 490.0) {
                                                                        votes[2] += 1;
                                                                    }

                                                                    else {
                                                                        votes[1] += 1;
                                                                    }
                                                                }

                                                                else {
                                                                    votes[1] += 1;
                                                                }
                                                            }

                                                            else {
                                                                if (x[4] <= 490.0) {
                                                                    votes[2] += 1;
                                                                }

                                                                else {
                                                                    votes[1] += 1;
                                                                }
                                                            }
                                                        }
                                                    }

                                                    else {
                                                        if (x[2] <= 12.426254749298096) {
                                                            if (x[4] <= 515.0) {
                                                                votes[2] += 1;
                                                            }

                                                            else {
                                                                votes[1] += 1;
                                                            }
                                                        }

                                                        else {
                                                            votes[1] += 1;
                                                        }
                                                    }
                                                }

                                                else {
                                                    if (x[2] <= 14.816393375396729) {
                                                        if (x[2] <= 13.350738525390625) {
                                                            votes[0] += 1;
                                                        }

                                                        else {
                                                            if (x[0] <= 632.7528991699219) {
                                                                votes[2] += 1;
                                                            }

                                                            else {
                                                                votes[1] += 1;
                                                            }
                                                        }
                                                    }

                                                    else {
                                                        if (x[0] <= 652.6782836914062) {
                                                            votes[2] += 1;
                                                        }

                                                        else {
                                                            if (x[1] <= 20.563979148864746) {
                                                                votes[2] += 1;
                                                            }

                                                            else {
                                                                if (x[0] <= 653.7545776367188) {
                                                                    if (x[0] <= 653.1628723144531) {
                                                                        votes[1] += 1;
                                                                    }

                                                                    else {
                                                                        votes[2] += 1;
                                                                    }
                                                                }

                                                                else {
                                                                    votes[1] += 1;
                                                                }
                                                            }
                                                        }
                                                    }
                                                }
                                            }
                                        }

                                        else {
                                            if (x[0] <= 643.7295532226562) {
                                                if (x[1] <= 37.777923583984375) {
                                                    if (x[4] <= 555.0) {
                                                        if (x[0] <= 573.701904296875) {
                                                            if (x[1] <= 26.675981521606445) {
                                                                if (x[3] <= 567.5) {
                                                                    votes[1] += 1;
                                                                }

                                                                else {
                                                                    if (x[4] <= 505.0) {
                                                                        if (x[1] <= 25.660178184509277) {
                                                                            votes[1] += 1;
                                                                        }

                                                                        else {
                                                                            votes[2] += 1;
                                                                        }
                                                                    }

                                                                    else {
                                                                        votes[2] += 1;
                                                                    }
                                                                }
                                                            }

                                                            else {
                                                                if (x[2] <= 19.813579559326172) {
                                                                    if (x[0] <= 571.0543212890625) {
                                                                        if (x[4] <= 495.0) {
                                                                            if (x[3] <= 565.0) {
                                                                                if (x[0] <= 564.6214599609375) {
                                                                                    votes[0] += 1;
                                                                                }

                                                                                else {
                                                                                    votes[2] += 1;
                                                                                }
                                                                            }

                                                                            else {
                                                                                votes[0] += 1;
                                                                            }
                                                                        }

                                                                        else {
                                                                            if (x[1] <= 29.089362144470215) {
                                                                                if (x[3] <= 565.0) {
                                                                                    votes[0] += 1;
                                                                                }

                                                                                else {
                                                                                    votes[2] += 1;
                                                                                }
                                                                            }

                                                                            else {
                                                                                if (x[0] <= 569.1586303710938) {
                                                                                    votes[2] += 1;
                                                                                }

                                                                                else {
                                                                                    votes[2] += 1;
                                                                                }
                                                                            }
                                                                        }
                                                                    }

                                                                    else {
                                                                        if (x[4] <= 505.0) {
                                                                            if (x[2] <= 16.931018829345703) {
                                                                                if (x[1] <= 30.914822578430176) {
                                                                                    votes[0] += 1;
                                                                                }

                                                                                else {
                                                                                    votes[2] += 1;
                                                                                }
                                                                            }

                                                                            else {
                                                                                votes[0] += 1;
                                                                            }
                                                                        }

                                                                        else {
                                                                            votes[1] += 1;
                                                                        }
                                                                    }
                                                                }

                                                                else {
                                                                    if (x[2] <= 24.840946197509766) {
                                                                        votes[1] += 1;
                                                                    }

                                                                    else {
                                                                        votes[2] += 1;
                                                                    }
                                                                }
                                                            }
                                                        }

                                                        else {
                                                            if (x[3] <= 595.0) {
                                                                if (x[5] <= 765.0) {
                                                                    if (x[0] <= 592.5) {
                                                                        if (x[5] <= 740.0) {
                                                                            if (x[4] <= 480.0) {
                                                                                votes[2] += 1;
                                                                            }

                                                                            else {
                                                                                if (x[2] <= 15.118564128875732) {
                                                                                    votes[2] += 1;
                                                                                }

                                                                                else {
                                                                                    votes[1] += 1;
                                                                                }
                                                                            }
                                                                        }

                                                                        else {
                                                                            votes[0] += 1;
                                                                        }
                                                                    }

                                                                    else {
                                                                        if (x[2] <= 22.030630111694336) {
                                                                            if (x[5] <= 715.0) {
                                                                                if (x[0] <= 593.3278198242188) {
                                                                                    votes[1] += 1;
                                                                                }

                                                                                else {
                                                                                    votes[2] += 1;
                                                                                }
                                                                            }

                                                                            else {
                                                                                votes[1] += 1;
                                                                            }
                                                                        }

                                                                        else {
                                                                            votes[2] += 1;
                                                                        }
                                                                    }
                                                                }

                                                                else {
                                                                    votes[1] += 1;
                                                                }
                                                            }

                                                            else {
                                                                if (x[0] <= 636.3427734375) {
                                                                    if (x[2] <= 14.50803804397583) {
                                                                        votes[0] += 1;
                                                                    }

                                                                    else {
                                                                        if (x[0] <= 603.790771484375) {
                                                                            if (x[5] <= 700.0) {
                                                                                votes[2] += 1;
                                                                            }

                                                                            else {
                                                                                if (x[0] <= 600.486572265625) {
                                                                                    votes[2] += 1;
                                                                                }

                                                                                else {
                                                                                    votes[1] += 1;
                                                                                }
                                                                            }
                                                                        }

                                                                        else {
                                                                            votes[2] += 1;
                                                                        }
                                                                    }
                                                                }

                                                                else {
                                                                    votes[1] += 1;
                                                                }
                                                            }
                                                        }
                                                    }

                                                    else {
                                                        if (x[5] <= 780.0) {
                                                            if (x[3] <= 625.0) {
                                                                if (x[5] <= 685.0) {
                                                                    votes[2] += 1;
                                                                }

                                                                else {
                                                                    votes[0] += 1;
                                                                }
                                                            }

                                                            else {
                                                                if (x[1] <= 32.690860748291016) {
                                                                    if (x[2] <= 13.790035247802734) {
                                                                        votes[0] += 1;
                                                                    }

                                                                    else {
                                                                        if (x[3] <= 632.5) {
                                                                            if (x[5] <= 725.0) {
                                                                                votes[2] += 1;
                                                                            }

                                                                            else {
                                                                                if (x[1] <= 31.213383674621582) {
                                                                                    votes[0] += 1;
                                                                                }

                                                                                else {
                                                                                    votes[0] += 1;
                                                                                }
                                                                            }
                                                                        }

                                                                        else {
                                                                            if (x[5] <= 710.0) {
                                                                                if (x[1] <= 24.93505859375) {
                                                                                    votes[0] += 1;
                                                                                }

                                                                                else {
                                                                                    votes[2] += 1;
                                                                                }
                                                                            }

                                                                            else {
                                                                                if (x[1] <= 27.79989719390869) {
                                                                                    votes[2] += 1;
                                                                                }

                                                                                else {
                                                                                    votes[0] += 1;
                                                                                }
                                                                            }
                                                                        }
                                                                    }
                                                                }

                                                                else {
                                                                    if (x[1] <= 34.6048641204834) {
                                                                        if (x[1] <= 33.44632339477539) {
                                                                            if (x[0] <= 635.2415466308594) {
                                                                                votes[1] += 1;
                                                                            }

                                                                            else {
                                                                                votes[0] += 1;
                                                                            }
                                                                        }

                                                                        else {
                                                                            votes[1] += 1;
                                                                        }
                                                                    }

                                                                    else {
                                                                        votes[0] += 1;
                                                                    }
                                                                }
                                                            }
                                                        }

